digraph Tree {
node [shape=box, style="filled, rounded", color="black", fontname=helvetica] ;
edge [fontname=helvetica] ;
0 [label="Sex <= 1.5\nentropy = 0.961\nsamples = 891\nvalue = [549, 342]\nclass = y[0]", fillcolor="#f5cfb4"] ;
1 [label="Fare <= 26.269\nentropy = 0.699\nsamples = 577\nvalue = [468, 109]\nclass = y[0]", fillcolor="#eb9e67"] ;
0 -> 1 [labeldistance=2.5, labelangle=45, headlabel="True"] ;
2 [label="Age <= 13.5\nentropy = 0.558\nsamples = 415\nvalue = [361, 54]\nclass = y[0]", fillcolor="#e99457"] ;
1 -> 2 ;
3 [label="entropy = 0.567\nsamples = 15\nvalue = [2, 13]\nclass = y[1]", fillcolor="#57ace9"] ;
2 -> 3 ;
4 [label="PassengerId <= 831.0\nentropy = 0.477\nsamples = 400\nvalue = [359, 41]\nclass = y[0]", fillcolor="#e88f50"] ;
2 -> 4 ;
5 [label="Age <= 32.5\nentropy = 0.501\nsamples = 372\nvalue = [331, 41]\nclass = y[0]", fillcolor="#e89152"] ;
4 -> 5 ;
6 [label="Age <= 30.75\nentropy = 0.55\nsamples = 275\nvalue = [240, 35]\nclass = y[0]", fillcolor="#e99356"] ;
5 -> 6 ;
7 [label="PassengerId <= 302.5\nentropy = 0.506\nsamples = 259\nvalue = [230, 29]\nclass = y[0]", fillcolor="#e89152"] ;
6 -> 7 ;
8 [label="PassengerId <= 203.0\nentropy = 0.654\nsamples = 95\nvalue = [79, 16]\nclass = y[0]", fillcolor="#ea9b61"] ;
7 -> 8 ;
9 [label="Age <= 23.5\nentropy = 0.52\nsamples = 60\nvalue = [53, 7]\nclass = y[0]", fillcolor="#e89253"] ;
8 -> 9 ;
10 [label="entropy = 0.0\nsamples = 19\nvalue = [19, 0]\nclass = y[0]", fillcolor="#e58139"] ;
9 -> 10 ;
11 [label="Fare <= 7.973\nentropy = 0.659\nsamples = 41\nvalue = [34, 7]\nclass = y[0]", fillcolor="#ea9b62"] ;
9 -> 11 ;
12 [label="entropy = 0.811\nsamples = 16\nvalue = [12, 4]\nclass = y[0]", fillcolor="#eeab7b"] ;
11 -> 12 ;
13 [label="entropy = 0.529\nsamples = 25\nvalue = [22, 3]\nclass = y[0]", fillcolor="#e99254"] ;
11 -> 13 ;
14 [label="Fare <= 7.973\nentropy = 0.822\nsamples = 35\nvalue = [26, 9]\nclass = y[0]", fillcolor="#eead7e"] ;
8 -> 14 ;
15 [label="entropy = 0.523\nsamples = 17\nvalue = [15, 2]\nclass = y[0]", fillcolor="#e89253"] ;
14 -> 15 ;
16 [label="entropy = 0.964\nsamples = 18\nvalue = [11, 7]\nclass = y[0]", fillcolor="#f6d1b7"] ;
14 -> 16 ;
17 [label="Age <= 19.5\nentropy = 0.4\nsamples = 164\nvalue = [151, 13]\nclass = y[0]", fillcolor="#e78c4a"] ;
7 -> 17 ;
18 [label="entropy = 0.0\nsamples = 24\nvalue = [24, 0]\nclass = y[0]", fillcolor="#e58139"] ;
17 -> 18 ;
19 [label="Age <= 22.5\nentropy = 0.446\nsamples = 140\nvalue = [127, 13]\nclass = y[0]", fillcolor="#e88e4d"] ;
17 -> 19 ;
20 [label="entropy = 0.773\nsamples = 22\nvalue = [17, 5]\nclass = y[0]", fillcolor="#eda673"] ;
19 -> 20 ;
21 [label="Age <= 26.5\nentropy = 0.358\nsamples = 118\nvalue = [110, 8]\nclass = y[0]", fillcolor="#e78a47"] ;
19 -> 21 ;
22 [label="entropy = 0.0\nsamples = 28\nvalue = [28, 0]\nclass = y[0]", fillcolor="#e58139"] ;
21 -> 22 ;
23 [label="entropy = 0.433\nsamples = 90\nvalue = [82, 8]\nclass = y[0]", fillcolor="#e88d4c"] ;
21 -> 23 ;
24 [label="entropy = 0.954\nsamples = 16\nvalue = [10, 6]\nclass = y[0]", fillcolor="#f5cdb0"] ;
6 -> 24 ;
25 [label="PassengerId <= 577.0\nentropy = 0.335\nsamples = 97\nvalue = [91, 6]\nclass = y[0]", fillcolor="#e78946"] ;
5 -> 25 ;
26 [label="PassengerId <= 287.5\nentropy = 0.474\nsamples = 59\nvalue = [53, 6]\nclass = y[0]", fillcolor="#e88f4f"] ;
25 -> 26 ;
27 [label="Fare <= 9.581\nentropy = 0.196\nsamples = 33\nvalue = [32, 1]\nclass = y[0]", fillcolor="#e6853f"] ;
26 -> 27 ;
28 [label="entropy = 0.0\nsamples = 18\nvalue = [18, 0]\nclass = y[0]", fillcolor="#e58139"] ;
27 -> 28 ;
29 [label="entropy = 0.353\nsamples = 15\nvalue = [14, 1]\nclass = y[0]", fillcolor="#e78a47"] ;
27 -> 29 ;
30 [label="entropy = 0.706\nsamples = 26\nvalue = [21, 5]\nclass = y[0]", fillcolor="#eb9f68"] ;
26 -> 30 ;
31 [label="entropy = 0.0\nsamples = 38\nvalue = [38, 0]\nclass = y[0]", fillcolor="#e58139"] ;
25 -> 31 ;
32 [label="entropy = 0.0\nsamples = 28\nvalue = [28, 0]\nclass = y[0]", fillcolor="#e58139"] ;
4 -> 32 ;
33 [label="relatives <= 3.5\nentropy = 0.924\nsamples = 162\nvalue = [107, 55]\nclass = y[0]", fillcolor="#f2c29f"] ;
1 -> 33 ;
34 [label="PassengerId <= 388.5\nentropy = 0.971\nsamples = 135\nvalue = [81, 54]\nclass = y[0]", fillcolor="#f6d5bd"] ;
33 -> 34 ;
35 [label="Age <= 41.0\nentropy = 0.796\nsamples = 54\nvalue = [41, 13]\nclass = y[0]", fillcolor="#eda978"] ;
34 -> 35 ;
36 [label="Fare <= 55.969\nentropy = 0.918\nsamples = 36\nvalue = [24, 12]\nclass = y[0]", fillcolor="#f2c09c"] ;
35 -> 36 ;
37 [label="entropy = 0.971\nsamples = 20\nvalue = [12, 8]\nclass = y[0]", fillcolor="#f6d5bd"] ;
36 -> 37 ;
38 [label="entropy = 0.811\nsamples = 16\nvalue = [12, 4]\nclass = y[0]", fillcolor="#eeab7b"] ;
36 -> 38 ;
39 [label="entropy = 0.31\nsamples = 18\nvalue = [17, 1]\nclass = y[0]", fillcolor="#e78845"] ;
35 -> 39 ;
40 [label="Age <= 51.5\nentropy = 1.0\nsamples = 81\nvalue = [40, 41]\nclass = y[1]", fillcolor="#fafdfe"] ;
34 -> 40 ;
41 [label="Fare <= 30.598\nentropy = 0.989\nsamples = 66\nvalue = [29, 37]\nclass = y[1]", fillcolor="#d4eaf9"] ;
40 -> 41 ;
42 [label="entropy = 0.811\nsamples = 20\nvalue = [5, 15]\nclass = y[1]", fillcolor="#7bbeee"] ;
41 -> 42 ;
43 [label="Fare <= 52.277\nentropy = 0.999\nsamples = 46\nvalue = [24, 22]\nclass = y[0]", fillcolor="#fdf5ef"] ;
41 -> 43 ;
44 [label="entropy = 0.722\nsamples = 15\nvalue = [12, 3]\nclass = y[0]", fillcolor="#eca06a"] ;
43 -> 44 ;
45 [label="PassengerId <= 651.0\nentropy = 0.963\nsamples = 31\nvalue = [12, 19]\nclass = y[1]", fillcolor="#b6dbf5"] ;
43 -> 45 ;
46 [label="entropy = 0.918\nsamples = 15\nvalue = [5, 10]\nclass = y[1]", fillcolor="#9ccef2"] ;
45 -> 46 ;
47 [label="entropy = 0.989\nsamples = 16\nvalue = [7, 9]\nclass = y[1]", fillcolor="#d3e9f9"] ;
45 -> 47 ;
48 [label="entropy = 0.837\nsamples = 15\nvalue = [11, 4]\nclass = y[0]", fillcolor="#eeaf81"] ;
40 -> 48 ;
49 [label="entropy = 0.229\nsamples = 27\nvalue = [26, 1]\nclass = y[0]", fillcolor="#e68641"] ;
33 -> 49 ;
50 [label="Pclass <= 2.5\nentropy = 0.824\nsamples = 314\nvalue = [81, 233]\nclass = y[1]", fillcolor="#7ebfee"] ;
0 -> 50 [labeldistance=2.5, labelangle=-45, headlabel="False"] ;
51 [label="Fare <= 28.856\nentropy = 0.299\nsamples = 170\nvalue = [9, 161]\nclass = y[1]", fillcolor="#44a2e6"] ;
50 -> 51 ;
52 [label="Age <= 23.5\nentropy = 0.469\nsamples = 70\nvalue = [7, 63]\nclass = y[1]", fillcolor="#4fa8e8"] ;
51 -> 52 ;
53 [label="entropy = 0.0\nsamples = 15\nvalue = [0, 15]\nclass = y[1]", fillcolor="#399de5"] ;
52 -> 53 ;
54 [label="PassengerId <= 373.0\nentropy = 0.55\nsamples = 55\nvalue = [7, 48]\nclass = y[1]", fillcolor="#56abe9"] ;
52 -> 54 ;
55 [label="entropy = 0.722\nsamples = 25\nvalue = [5, 20]\nclass = y[1]", fillcolor="#6ab6ec"] ;
54 -> 55 ;
56 [label="Age <= 33.5\nentropy = 0.353\nsamples = 30\nvalue = [2, 28]\nclass = y[1]", fillcolor="#47a4e7"] ;
54 -> 56 ;
57 [label="entropy = 0.0\nsamples = 15\nvalue = [0, 15]\nclass = y[1]", fillcolor="#399de5"] ;
56 -> 57 ;
58 [label="entropy = 0.567\nsamples = 15\nvalue = [2, 13]\nclass = y[1]", fillcolor="#57ace9"] ;
56 -> 58 ;
59 [label="Parch <= 1.5\nentropy = 0.141\nsamples = 100\nvalue = [2, 98]\nclass = y[1]", fillcolor="#3d9fe6"] ;
51 -> 59 ;
60 [label="entropy = 0.0\nsamples = 84\nvalue = [0, 84]\nclass = y[1]", fillcolor="#399de5"] ;
59 -> 60 ;
61 [label="entropy = 0.544\nsamples = 16\nvalue = [2, 14]\nclass = y[1]", fillcolor="#55abe9"] ;
59 -> 61 ;
62 [label="relatives <= 3.5\nentropy = 1.0\nsamples = 144\nvalue = [72, 72]\nclass = y[0]", fillcolor="#ffffff"] ;
50 -> 62 ;
63 [label="Age <= 28.5\nentropy = 0.977\nsamples = 117\nvalue = [48, 69]\nclass = y[1]", fillcolor="#c3e1f7"] ;
62 -> 63 ;
64 [label="Fare <= 7.888\nentropy = 0.946\nsamples = 96\nvalue = [35, 61]\nclass = y[1]", fillcolor="#abd5f4"] ;
63 -> 64 ;
65 [label="PassengerId <= 373.0\nentropy = 0.779\nsamples = 39\nvalue = [9, 30]\nclass = y[1]", fillcolor="#74baed"] ;
64 -> 65 ;
66 [label="entropy = 0.65\nsamples = 24\nvalue = [4, 20]\nclass = y[1]", fillcolor="#61b1ea"] ;
65 -> 66 ;
67 [label="entropy = 0.918\nsamples = 15\nvalue = [5, 10]\nclass = y[1]", fillcolor="#9ccef2"] ;
65 -> 67 ;
68 [label="Fare <= 15.373\nentropy = 0.994\nsamples = 57\nvalue = [26, 31]\nclass = y[1]", fillcolor="#dfeffb"] ;
64 -> 68 ;
69 [label="Age <= 20.5\nentropy = 0.96\nsamples = 34\nvalue = [21, 13]\nclass = y[0]", fillcolor="#f5cfb4"] ;
68 -> 69 ;
70 [label="entropy = 0.989\nsamples = 16\nvalue = [7, 9]\nclass = y[1]", fillcolor="#d3e9f9"] ;
69 -> 70 ;
71 [label="entropy = 0.764\nsamples = 18\nvalue = [14, 4]\nclass = y[0]", fillcolor="#eca572"] ;
69 -> 71 ;
72 [label="entropy = 0.755\nsamples = 23\nvalue = [5, 18]\nclass = y[1]", fillcolor="#70b8ec"] ;
68 -> 72 ;
73 [label="entropy = 0.959\nsamples = 21\nvalue = [13, 8]\nclass = y[0]", fillcolor="#f5cfb3"] ;
63 -> 73 ;
74 [label="entropy = 0.503\nsamples = 27\nvalue = [24, 3]\nclass = y[0]", fillcolor="#e89152"] ;
62 -> 74 ;
}